-0.1390470266342163
0.17604461312294006
-0.14982476830482483
-0.13818950951099396
-0.18876291811466217
-0.1697934865951538
0.19643378257751465
-0.21048593521118164
-0.07994973659515381
0.13443763554096222
-0.07509869337081909
0.3437015116214752
0.1304747611284256
-0.19027505815029144
-0.13682973384857178
0.04016028717160225
-0.09299727529287338
0.06615732610225677
0.15539638698101044
-0.0822906643152237
0.18209026753902435
-0.058820903301239014
-0.21751412749290466
0.275162935256958
-0.08507827669382095
0.22846044600009918
-0.1401565968990326
0.07494039833545685
-0.11169131845235825
-0.15452666580677032
-0.2066020965576172
-0.013086908496916294
0.022839762270450592
-0.11832458525896072
-0.09487370401620865
-0.06474176049232483
-0.17776885628700256
0.0658094510436058
-0.13095006346702576
-0.17091664671897888
-0.03420422971248627
0.007908590137958527
-0.08454223722219467
-0.03154447302222252
-0.1472361534833908
-0.19257532060146332
-0.050573237240314484
0.12062816321849823
-0.08167135715484619
0.19025862216949463
-0.08516731858253479
0.14573875069618225
-0.16389034688472748
-0.08310096710920334
-0.13005705177783966
0.18312658369541168
0.11983775347471237
-0.17410513758659363
0.06068256124854088
-0.068477563560009
-0.07057163119316101
-0.1648055464029312
-0.05200693756341934
-0.010480482131242752
