-0.06321116536855698
-0.058814000338315964
0.023108841851353645
-0.1699262261390686
0.21683518588542938
0.023968728259205818
-0.03194110095500946
0.07340241223573685
0.22970838844776154
0.17554111778736115
0.23069216310977936
-0.08076906204223633
0.20121124386787415
0.1274324357509613
0.11390919238328934
-0.11976274102926254
0.12268891930580139
-0.02503364346921444
-0.19656826555728912
0.2532956004142761
-0.02996515855193138
0.02302197739481926
-0.07912631332874298
-0.10887665301561356
-0.024046005681157112
-0.1520240753889084
0.215335875749588
0.02901172824203968
0.06573167443275452
-0.038840677589178085
0.13033966720104218
-0.1878456026315689
-0.2279626727104187
-0.057477377355098724
0.12157253175973892
0.0013329463545233011
0.1614995300769806
0.12838809192180634
0.2690522074699402
-0.09511976689100266
0.0764835774898529
-0.045213595032691956
0.26372408866882324
0.17766450345516205
-0.006388791836798191
0.21339347958564758
0.14647115767002106
0.016459140926599503
0.20932166278362274
-0.04739116132259369
-0.08593294024467468
0.003148145042359829
-0.05065736174583435
0.24061882495880127
-0.13939307630062103
-0.01645955815911293
0.11841016262769699
0.10027045756578445
0.10577502101659775
-0.10304778814315796
0.09150052070617676
-0.024981733411550522
0.22585228085517883
-0.11516440659761429
