-0.15638791024684906
0.2555406987667084
-0.18027375638484955
-0.2385890930891037
0.10081265866756439
-0.033097244799137115
-0.10455501079559326
-0.26132315397262573
-0.2476479709148407
0.011561262421309948
0.04747231304645538
-0.04738740250468254
-0.15118925273418427
0.08788900077342987
0.0602337047457695
-0.043913744390010834
0.01555048581212759
-0.11609404534101486
-0.274933397769928
-0.28160911798477173
0.10236594825983047
0.09705738723278046
-0.16029642522335052
0.07842269539833069
-0.1761178970336914
-0.03588389232754707
-0.20327413082122803
0.1102285385131836
-0.023457854986190796
-0.07615768909454346
0.02294658124446869
-0.10463572293519974
0.27264195680618286
0.2077302783727646
-0.018172545358538628
-0.14218397438526154
0.04647698253393173
0.08339488506317139
0.13078346848487854
0.12841664254665375
0.07468876987695694
-0.05339055135846138
-0.13136820495128632
0.28785988688468933
0.08879829198122025
-0.2476295828819275
-0.039583075791597366
-0.19143830239772797
0.20136642456054688
0.0009246428380720317
0.0958474650979042
-0.10779877752065659
-0.07432469725608826
0.0910104364156723
0.23972205817699432
-0.11835645884275436
-0.11648604273796082
0.16420982778072357
-0.23220336437225342
-0.2769277095794678
-0.2143872231245041
0.11451411992311478
0.04534629359841347
0.02289249189198017
-0.26691460609436035
-0.023496834561228752
0.12647899985313416
-0.01620456762611866
0.2551538050174713
0.0485440269112587
-0.19742415845394135
-0.08410008996725082
-0.06637432426214218
0.12811899185180664
-0.04518534243106842
-0.11218857020139694
0.07964464277029037
0.09786222130060196
0.08474788069725037
-0.038862328976392746
-0.24211496114730835
-0.2556515038013458
-0.15778718888759613
-0.09670548141002655
-0.10214580595493317
0.07484881579875946
-0.18770895898342133
-0.22202132642269135
-0.09159921109676361
-0.21962852776050568
-0.07324818521738052
0.10299922525882721
-0.12303271889686584
0.1262834072113037
0.025467192754149437
-0.08448285609483719
-0.0748932808637619
-0.08803418278694153
0.11340975016355515
-0.1137705072760582
-0.053152259439229965
0.1409323364496231
-0.08533842861652374
-0.1424591839313507
-0.06345876306295395
0.030594978481531143
0.24471348524093628
0.02817770652472973
0.14814506471157074
0.10073783993721008
-0.15637415647506714
0.14889580011367798
0.11704491823911667
0.1378115862607956
-0.06834474205970764
-0.1211571916937828
0.10149197280406952
-0.014436900615692139
-0.10934650152921677
-0.029032263904809952
0.030907349660992622
0.2947048842906952
-0.3055831491947174
0.2209872156381607
-0.18446572124958038
-0.182502880692482
0.21564753353595734
-0.154446080327034
0.057997927069664
0.060609135776758194
-0.226797953248024
0.28855809569358826
0.10292158275842667
0.020700976252555847
-0.11059886962175369
0.2682760953903198
-0.17852084338665009
-0.06192825362086296
-0.052758388221263885
0.014203287661075592
-0.09718362241983414
-0.021450182422995567
-0.054732222110033035
-0.08424264937639236
-0.22944670915603638
-0.24924792349338531
-0.23500454425811768
-0.012771429494023323
0.24894416332244873
-0.05753541365265846
-0.07160231471061707
-0.006519406568259001
-0.017599185928702354
0.1541198492050171
-0.24481715261936188
-0.20755477249622345
-0.22798606753349304
-0.24782133102416992
0.012487859465181828
-0.2593799829483032
-0.26295965909957886
0.10357129573822021
0.04571764916181564
0.4009874761104584
-0.2115887552499771
-0.16659259796142578
-0.20161238312721252
0.2330329716205597
-0.19421018660068512
-0.023318123072385788
-0.2824125289916992
0.25224190950393677
0.04088696092367172
-0.1473943293094635
0.05396460369229317
-0.08716293424367905
-0.0699765533208847
0.10626795887947083
0.08267220854759216
-0.17118997871875763
0.20435534417629242
0.14426125586032867
0.07270196080207825
0.2979619801044464
-0.277001291513443
-0.04555707052350044
-0.12597493827342987
0.04096241667866707
-0.08445511758327484
-0.23042680323123932
0.1717904657125473
-0.08764177560806274
0.26015031337738037
0.11639951169490814
0.13607817888259888
0.20792682468891144
0.15023119747638702
0.18115031719207764
0.11557315289974213
0.2940827012062073
0.15534986555576324
-0.15800687670707703
0.06177739426493645
0.16378164291381836
-0.03353912755846977
0.010063198395073414
0.1904609501361847
-0.2860817313194275
0.26400765776634216
-0.26760050654411316
0.08647514134645462
-0.08596187084913254
0.012245571240782738
-0.05420328304171562
0.0037036268040537834
-0.010369659401476383
0.08300197869539261
0.0005372200976125896
0.07692497223615646
-0.19814692437648773
-0.15383030474185944
0.06526480615139008
-0.0755913257598877
0.21814635396003723
-0.10580369085073471
0.06541213393211365
0.10462778806686401
0.001155824982561171
0.19503498077392578
-0.08648452162742615
0.28484657406806946
-0.05539887771010399
-0.21680518984794617
0.12983080744743347
-0.06977300345897675
0.26950129866600037
-0.04367199167609215
0.2879196107387543
-0.13695944845676422
0.2988453209400177
0.07623171806335449
0.024017302319407463
-0.10866788774728775
0.16162404417991638
0.13354860246181488
0.15416917204856873
0.27814650535583496
0.017536498606204987
0.11331807076931
-0.0344635471701622
0.14123843610286713
0.055529575794935226
-0.17824707925319672
0.0369722843170166
0.013830169104039669
-0.04927155375480652
0.053026001900434494
-0.12030099332332611
0.14232885837554932
0.015108682215213776
0.059159040451049805
0.07136036455631256
0.2111278772354126
0.030494609847664833
0.18465757369995117
0.22891077399253845
0.0749562680721283
-0.057531923055648804
-0.25505515933036804
0.14966630935668945
-0.05725159868597984
-0.12227587401866913
0.0505194328725338
-0.22596047818660736
0.045596424490213394
0.1041974276304245
0.15029476583003998
-0.09788007289171219
-0.038707196712493896
-0.16296474635601044
0.01952780783176422
-0.0279986709356308
0.10949965566396713
-0.15887095034122467
-0.03038819506764412
0.13802993297576904
0.203186497092247
-0.08475638180971146
-0.17237186431884766
0.1326237916946411
0.2626778483390808
-0.029706759378314018
-0.1697479486465454
0.085127092897892
0.026635656133294106
-0.06780450791120529
0.03645487502217293
0.09618895500898361
0.09530207514762878
0.08505629003047943
-0.016942769289016724
0.14688853919506073
-0.18065065145492554
0.18645425140857697
-0.12197035551071167
0.3084249496459961
0.08843982964754105
-0.13646943867206573
-0.30107155442237854
0.1692495495080948
-0.120478555560112
-0.10309973359107971
0.22018294036388397
0.21071097254753113
0.11956200748682022
0.059921715408563614
-0.022695118561387062
-0.11530016362667084
-0.01689128577709198
0.19522196054458618
-0.013174954801797867
0.0971045196056366
-0.15987685322761536
-0.1605338454246521
-0.040681660175323486
0.039905257523059845
-0.05589091405272484
-0.14350661635398865
-0.04873362183570862
0.015189193189144135
0.1366434544324875
-0.22350578010082245
0.04688028246164322
-0.23053477704524994
-0.13935378193855286
-0.20968717336654663
-0.1184135377407074
-0.008526938036084175
0.1520632803440094
-0.06938518583774567
0.00014614609244745225
0.1806964874267578
0.03774183616042137
0.039351433515548706
0.05573934689164162
-0.04825437441468239
0.08375842869281769
0.0026536034420132637
0.02130407653748989
0.2139502316713333
-0.053746990859508514
0.16730383038520813
-0.025649502873420715
-0.06121550872921944
-0.04175057262182236
0.1110973209142685
0.09787994623184204
0.07109440118074417
-0.13923706114292145
0.16050896048545837
0.2553231120109558
-0.006458696909248829
-0.08649046719074249
0.3077855110168457
-0.24706357717514038
0.010760151781141758
-0.0984722226858139
0.09346790611743927
0.05924665555357933
0.032238855957984924
-0.1504785269498825
0.12853719294071198
-0.009104937314987183
-0.057599082589149475
-0.10263556241989136
-0.025480445474386215
-0.05580105260014534
0.032572053372859955
-0.161509171128273
-0.04142511263489723
-0.2752976417541504
0.014671511948108673
-0.0972236916422844
-0.2552679181098938
-0.03527989983558655
0.03987959027290344
0.051049068570137024
0.01897428184747696
0.11743345856666565
-0.25771966576576233
0.09642426669597626
0.27401334047317505
-0.026718860492110252
-0.06017771735787392
-0.16291174292564392
-0.1249907985329628
-0.09909216314554214
0.07672873884439468
0.19238293170928955
-0.16993705928325653
-0.12098457664251328
-0.07784570753574371
-0.10804709047079086
-0.2156696915626526
-0.0034161608200520277
-0.0026493133045732975
0.054277315735816956
-0.06934133917093277
0.19545000791549683
-0.012803842313587666
0.026348907500505447
-0.2053043395280838
-0.09873078018426895
0.2914749085903168
0.4073103964328766
0.11874150484800339
0.16704794764518738
0.10420047491788864
-0.003103097900748253
0.051369912922382355
0.04148811474442482
0.14903590083122253
0.07605104148387909
0.13163383305072784
0.16919291019439697
-0.16376906633377075
-0.1192280575633049
0.13141867518424988
-0.2029791921377182
0.14247851073741913
0.1969042718410492
-0.12876833975315094
-0.11872751265764236
-0.00048689107643440366
-0.21789556741714478
-0.09740971028804779
-0.01241155806928873
0.05183159187436104
-0.20883069932460785
-0.20800137519836426
-0.09140326827764511
0.13586373627185822
0.11344283819198608
0.025824153795838356
-0.13157705962657928
0.0997396931052208
0.14755114912986755
0.1114659309387207
-0.24570435285568237
0.05045545846223831
-0.20329932868480682
0.007713504135608673
0.1759650856256485
-0.15536263585090637
-0.1953853964805603
0.028439203277230263
0.004137913230806589
0.11698850989341736
0.1857759803533554
0.23580776154994965
-0.10211751610040665
0.07613693177700043
0.26652854681015015
-0.20660004019737244
-0.017501438036561012
-0.10724812746047974
0.028423603624105453
-0.14711686968803406
0.08720844984054565
0.20157252252101898
0.08276519924402237
-0.04440230876207352
-0.22116528451442719
0.027957212179899216
0.20713187754154205
-0.1431850790977478
-0.03134898096323013
-0.06502057611942291
-0.14687283337116241
0.0746195837855339
0.19677935540676117
0.062212567776441574
-0.0006498686852864921
-0.1666640341281891
0.15058568120002747
0.21197308599948883
0.05577687919139862
-0.24177540838718414
0.026757681742310524
0.15351130068302155
-0.10120784491300583
0.12714716792106628
0.05479249730706215
-0.31355053186416626
-0.04391707107424736
-0.1922989934682846
0.10951993614435196
-0.05713319033384323
-0.15741899609565735
0.22177061438560486
-0.21359039843082428
0.13219982385635376
-0.09695186465978622
0.048049330711364746
-0.215844988822937
0.003850852372124791
0.10420776158571243
0.026592498645186424
-0.07837025821208954
0.17351573705673218
-0.09428638219833374
-0.00039483365253545344
-0.2159743756055832
0.036307964473962784
0.2349126785993576
0.11903273314237595
-0.10188059508800507
0.09605428576469421
-0.03700665757060051
-0.22979064285755157
0.20291830599308014
0.20708125829696655
0.11495563387870789
-0.18837153911590576
-0.08323393762111664
0.018665000796318054
0.08804123103618622
-0.08299605548381805
-0.04276805743575096
-0.2558639347553253
-0.08331891149282455
-0.16775332391262054
-0.11120132356882095
0.02695523202419281
0.01570412702858448
0.0015647719847038388
0.06794561445713043
0.16796162724494934
-0.28095465898513794
0.20935243368148804
-0.1472712755203247
0.11865001171827316
-0.07445784658193588
0.2160160094499588
0.10964661091566086
0.2400347888469696
0.08279121667146683
-0.10357580333948135
-0.19010914862155914
-0.05322544276714325
0.04676598310470581
-0.03481651842594147
-0.1940276026725769
-0.004776461981236935
-0.25219547748565674
-0.17823494970798492
0.11804669350385666
0.08775567263364792
-0.297140896320343
0.028617091476917267
0.22105181217193604
0.22605015337467194
0.09203063696622849
0.0782100260257721
-0.10749880224466324
0.12004629522562027
-0.23169240355491638
0.09401963651180267
-0.21386688947677612
-0.15946263074874878
-0.2706276476383209
-0.04013017565011978
0.2797769606113434
-0.01916622556746006
-0.18375009298324585
-0.06391409784555435
-0.0840531587600708
0.10117393732070923
0.06868495047092438
0.06681568920612335
-0.2525772750377655
0.0593281164765358
-0.16487270593643188
-0.09893827885389328
-0.2274656593799591
0.11968490481376648
-0.0057888575829565525
-0.0834619402885437
-0.1821754276752472
0.005776369944214821
-0.10455437004566193
-0.1653532087802887
-0.19717347621917725
-0.11055560410022736
0.1742568016052246
-0.1091027706861496
0.11462903022766113
-0.18325567245483398
-0.01767483912408352
0.017950985580682755
0.1406070441007614
0.09765002131462097
0.28459668159484863
0.043878957629203796
0.1493561714887619
0.2610824406147003
0.013392353430390358
0.03263867646455765
-0.05385817587375641
0.10260546952486038
0.17807209491729736
-0.029377644881606102
-0.06877802312374115
0.0073899030685424805
0.28217214345932007
0.07121752947568893
-0.2261878401041031
0.08027253299951553
-0.019170131534337997
-0.06272901594638824
0.2075979858636856
0.18448731303215027
0.18983812630176544
0.14602914452552795
0.0031768782064318657
0.30628883838653564
0.07311141490936279
0.003994131460785866
0.10270494967699051
-0.1629502922296524
0.00022467123926617205
-0.03308628499507904
-0.25199413299560547
0.258027583360672
-0.2263970673084259
-0.08416146785020828
0.130914568901062
-0.07218174636363983
-0.20491346716880798
0.09551184624433517
-0.17355382442474365
-0.04164094477891922
-0.16720300912857056
0.13488218188285828
0.17641481757164001
0.05385032668709755
-0.15853112936019897
0.16829970479011536
-0.08080512285232544
0.03139929845929146
-0.29745134711265564
-0.03142417594790459
-0.004100609105080366
0.04609351605176926
-0.06582663953304291
0.08871479332447052
0.13548855483531952
0.1590268760919571
-0.27504462003707886
0.11881216615438461
0.08212689310312271
-0.08877009153366089
-0.21071213483810425
0.07636904716491699
-0.1452775001525879
0.19118642807006836
-0.26913759112358093
0.006583982612937689
-0.11569675803184509
0.026085443794727325
-0.005172453820705414
0.23113037645816803
0.09474065154790878
-0.16527001559734344
0.278594434261322
0.0007628831081092358
-0.09246455878019333
-0.24893364310264587
0.08642695844173431
-0.056683171540498734
-0.09109276533126831
0.03981911391019821
0.19068464636802673
0.04135442525148392
-0.09873921424150467
0.06089949980378151
-0.24327287077903748
0.21287758648395538
-0.12893518805503845
0.013879097998142242
0.10335497558116913
-0.1033373773097992
0.04475722461938858
0.05994689464569092
0.10855326801538467
-0.02503196895122528
-0.15189209580421448
0.14502687752246857
-0.05411564186215401
-0.1175098717212677
0.11604189872741699
-0.04363533481955528
0.041457876563072205
0.024293743073940277
0.14312200248241425
0.016428574919700623
-0.0475231297314167
-0.04294353350996971
3.766429017559858e-07
-0.006989428773522377
0.16390939056873322
0.17034609615802765
-0.11157794296741486
0.15047813951969147
-0.15603315830230713
-0.04412901774048805
-0.024485548958182335
-0.19958484172821045
-0.2712806165218353
-0.22456152737140656
0.2715538442134857
0.09119311720132828
0.01352857518941164
0.24086421728134155
0.0716710314154625
-0.16550008952617645
-0.08403950929641724
-0.1078600361943245
0.03822743520140648
-0.027150757610797882
0.04518989101052284
-0.2278602421283722
0.24516808986663818
-0.0881902202963829
0.23155587911605835
0.2403421550989151
-0.07593665271997452
0.11793399602174759
-0.012091182172298431
-0.2741243541240692
-0.13888698816299438
-0.17875869572162628
-0.021876942366361618
-0.08259744197130203
0.2055424600839615
0.12576933205127716
-0.08100618422031403
-0.2017955183982849
0.08364006876945496
0.1380670815706253
-0.1541690081357956
-0.16087862849235535
-0.13575991988182068
0.17073959112167358
0.10700513422489166
-0.07137812674045563
-0.0730041041970253
-0.0812021791934967
0.07011203467845917
-0.12049726396799088
0.05439567193388939
-0.049376487731933594
0.056567851454019547
-0.03570687770843506
0.29840055108070374
-0.09003578126430511
0.029772445559501648
0.19203254580497742
-0.038113247603178024
-0.021032892167568207
0.2019333690404892
0.25684329867362976
0.20363567769527435
0.059269946068525314
0.23017320036888123
0.15115395188331604
-0.069511279463768
0.2661462128162384
-0.1747872233390808
-0.20040442049503326
-0.10798639059066772
0.12468311190605164
0.07873363047838211
0.16822625696659088
0.33997446298599243
-0.12969565391540527
0.20888055860996246
0.24246801435947418
0.09481091052293777
-0.14204902946949005
0.19921880960464478
-0.15898528695106506
0.18069496750831604
-0.04539993777871132
-0.24484246969223022
0.010066162794828415
-0.08073431998491287
-0.004896638449281454
0.05466040223836899
0.13439010083675385
-0.0003027446218766272
-0.00011760600318666548
0.19397485256195068
-0.1258886158466339
-0.0771196261048317
9.275079355575144e-05
-0.13821537792682648
0.043668072670698166
0.12302778661251068
0.03596058115363121
-0.26599788665771484
-0.024801556020975113
0.11040149629116058
8.409117435803637e-05
0.00508755212649703
-0.030494969338178635
-0.00013274280354380608
-0.00014418433420360088
-0.2463964819908142
-0.1329459249973297
0.19305725395679474
0.020866118371486664
-0.10760796070098877
-0.0026548760943114758
0.15685315430164337
-7.073080632835627e-05
-0.09038602560758591
-0.02535146288573742
0.13372111320495605
-0.04382225126028061
-0.2112327218055725
0.11508527398109436
-0.14569739997386932
0.00024982914328575134
-0.2039848417043686
-0.051196254789829254
0.090643510222435
0.0001559229422127828
0.0929785668849945
-0.06490924209356308
0.06971597671508789
-7.342896424233913e-07
0.04904800280928612
0.015631545335054398
0.05810248479247093
-0.00012879876885563135
0.13948877155780792
0.1744847595691681
-0.14231498539447784
-7.987533899722621e-05
0.08660361915826797
0.0038002009969204664
0.010446138679981232
-4.018571780761704e-05
0.2134818434715271
0.09829061478376389
0.12702572345733643
-0.00016904334188438952
-0.22994473576545715
0.1545310765504837
0.1385967880487442
-8.224729390349239e-05
-0.15831145644187927
-0.07266764342784882
-0.11837643384933472
1.0679537808755413e-05
0.32910218834877014
0.13333076238632202
0.05599173158407211
0.00016112808953039348
0.05067133903503418
0.23778082430362701
0.25952959060668945
2.7805519493995234e-05
0.017209958285093307
0.016461361199617386
-0.10543835163116455
-7.068191189318895e-05
-0.04395317658782005
0.048317067325115204
0.03646135702729225
-0.015511270612478256
0.11205455660820007
0.2003677636384964
0.23534198105335236
-0.17659057676792145
0.04559025540947914
-0.0950981006026268
0.004638307262212038
-0.224432110786438
-0.09904532134532928
-0.09522046148777008
0.3352093994617462
-0.22839288413524628
-0.04801289364695549
-0.2853272259235382
0.1663278341293335
-0.17738574743270874
-0.2492014765739441
-0.07170011848211288
-0.08871616423130035
-0.15444450080394745
-0.05186784639954567
-0.07546578347682953
-0.009687813930213451
0.10753165930509567
-0.21515198051929474
0.03281676769256592
0.2650166153907776
-0.15200503170490265
0.1033594161272049
0.003989681601524353
0.09771233052015305
0.20834235846996307
0.0002363024395890534
0.09438250958919525
-0.21180036664009094
-0.14911869168281555
0.18253101408481598
-0.003085547825321555
-0.09914395958185196
0.2870056927204132
-0.029259342700242996
-0.14740750193595886
0.07168558239936829
-0.011917321011424065
0.13670025765895844
-0.11773355305194855
-0.06522312760353088
0.03944281116127968
0.25659430027008057
0.07581068575382233
-0.023082317784428596
0.12461945414543152
0.1563313752412796
-0.2801116406917572
-0.043658506125211716
-0.09856843948364258
-0.1828121691942215
-0.1100984662771225
-0.0046579730696976185
-0.1282377690076828
-0.15857262909412384
-0.08704396337270737
0.016510270535945892
0.22374869883060455
0.06981543451547623
0.056240200996398926
0.22409488260746002
0.18444018065929413
0.15128755569458008
-0.16849680244922638
0.11116088181734085
-0.25730496644973755
-0.257633239030838
0.08583009988069534
0.12105154246091843
-0.12069583684206009
-0.23515397310256958
0.3312072455883026
-0.3235348165035248
-0.2128174901008606
0.011700795963406563
-0.14730952680110931
0.10938234627246857
-0.1258203387260437
0.18442946672439575
-0.14167219400405884
-0.005210226867347956
-0.03990153223276138
0.057379160076379776
0.14575330913066864
0.0035904033575206995
-0.2135481983423233
0.201383575797081
-0.3060397207736969
-0.11239089071750641
0.33552029728889465
0.20487067103385925
0.22841280698776245
0.281573623418808
-0.049323439598083496
0.18158692121505737
0.0002703970531001687
-0.13396912813186646
0.3263435363769531
0.16195301711559296
0.16503620147705078
0.1317371129989624
-0.23738990724086761
0.03647928684949875
0.0606856569647789
-0.044660914689302444
-0.20053203403949738
-0.192296102643013
-0.10879476368427277
-0.10148759931325912
0.0034361789003014565
0.11366303265094757
-0.13350127637386322
-0.15314166247844696
-0.2688962519168854
0.0073045664466917515
-0.18986716866493225
-0.1827945113182068
-0.06204705685377121
0.19181424379348755
-0.12139967828989029
0.19984418153762817
-0.08804607391357422
0.09078842401504517
-0.22725145518779755
-0.17389856278896332
0.06054689735174179
0.0008300113840959966
0.2249201089143753
-0.2304035872220993
0.26035362482070923
-0.11543870717287064
-0.11712914705276489
-0.17008477449417114
-0.005572918336838484
-0.1785953938961029
-0.04412681236863136
-0.035215869545936584
-0.2264806032180786
-0.02054845355451107
-0.21954038739204407
0.32074153423309326
-0.1120540127158165
0.30950361490249634
-0.10088327527046204
0.12809239327907562
-0.276114284992218
0.2163366675376892
-0.0007965908152982593
-0.32637742161750793
0.04434254765510559
0.09952957183122635
0.20368622243404388
0.16512608528137207
-0.3531859815120697
0.06066367030143738
0.29874926805496216
-0.24586550891399384
0.02206699550151825
0.19718049466609955
0.14175930619239807
-0.12362153828144073
0.027861861512064934
-0.06515821814537048
0.02628682181239128
0.2566240131855011
0.21115119755268097
0.06375646591186523
-0.24002529680728912
-0.0009763296693563461
0.004468458704650402
0.1999739706516266
-0.11884699761867523
-0.14055877923965454
0.18664094805717468
0.01587216556072235
-0.07787417620420456
-0.09187328815460205
-0.2525743842124939
0.15325570106506348
0.20475980639457703
-0.17156267166137695
0.12376566976308823
0.19689230620861053
0.22176729142665863
-0.23937909305095673
0.14222675561904907
0.163664773106575
-0.04733618348836899
0.18535669147968292
0.033260513097047806
-0.2089104801416397
0.1415777951478958
0.1555561125278473
-0.05909605324268341
-0.1445111185312271
0.09926143288612366
-0.17884190380573273
-0.09219983220100403
0.2929302155971527
-0.14266350865364075
0.2634564936161041
0.2745353579521179
0.1234440952539444
-0.09089571982622147
-0.0047686160542070866
-0.20372864603996277
-0.2174772471189499
-0.23310522735118866
-0.06873329728841782
-0.20296575129032135
0.13483087718486786
0.13215655088424683
0.1137290671467781
-0.18865139782428741
0.07865361124277115
0.306844025850296
0.2839817702770233
-0.07091916352510452
0.10276992619037628
-0.21564440429210663
-0.2718721926212311
0.29701465368270874
-0.0017779949121177197
-0.24326831102371216
0.06161735951900482
0.12561839818954468
0.2211672067642212
0.055068016052246094
0.010452778078615665
-0.28794100880622864
-0.08437421917915344
0.10703422874212265
0.14225655794143677
-0.0681847408413887
-0.15431353449821472
0.2470363825559616
0.08752581477165222
0.11573964357376099
-0.1447058618068695
1.2513584806583822e-05
0.06651052087545395
-0.1797996163368225
0.10947184264659882
0.1822192370891571
-0.2615121901035309
-0.08985306322574615
-0.12470850348472595
0.04856448620557785
-0.14163771271705627
-0.11660847812891006
-0.0527474619448185
0.10789787024259567
0.09465838968753815
0.22265061736106873
0.09982560575008392
-0.06689736247062683
0.09515371918678284
0.0016122573288157582
0.21600838005542755
0.18052835762500763
-0.12350407242774963
0.02108156308531761
-0.00991820078343153
-0.03859143331646919
-0.12948088347911835
-0.05154809728264809
-0.11115937680006027
-0.15014232695102692
0.01582786627113819
0.2517852187156677
-0.20885126292705536
-0.09593869745731354
-0.08659013360738754
0.18961158394813538
0.0332530178129673
-0.19988667964935303
0.11003752797842026
0.16426584124565125
-0.07579813152551651
0.09689295291900635
-0.2744724452495575
-0.05940990522503853
-0.23283791542053223
0.14054147899150848
-0.23836302757263184
0.06652335077524185
0.07684917747974396
0.12937097251415253
0.0771118551492691
-0.05250905081629753
-0.016018066555261612
0.20595188438892365
-0.18327738344669342
-0.01617368869483471
0.07693570107221603
0.04468472674489021
-0.1717657893896103
-0.25237181782722473
-0.24254491925239563
-0.008623969741165638
-0.21505124866962433
0.22007401287555695
-0.23122461140155792
0.26126334071159363
0.030155381187796593
-0.12561358511447906
-0.1846057027578354
0.2144862711429596
0.26637688279151917
-0.30519911646842957
-0.019637130200862885
0.11692515760660172
0.2341020703315735
-0.17854082584381104
0.09329739212989807
-0.15780958533287048
0.05646957457065582
0.2748914957046509
-0.06676972657442093
0.1700081080198288
0.1064821407198906
0.0672840029001236
0.05865907669067383
0.04760292172431946
0.18736539781093597
0.12481150776147842
0.3192856013774872
-0.07354021817445755
-0.20312578976154327
0.23493435978889465
0.0206016656011343
-0.030457058921456337
0.09500375390052795
-0.14591629803180695
0.1679605096578598
0.10235350579023361
-0.04573412239551544
0.021528154611587524
-0.032191552221775055
0.15298715233802795
0.006219782400876284
0.11936409771442413
0.19585396349430084
-0.029540641233325005
-0.1673540472984314
-0.06573208421468735
-0.1702369600534439
0.04959706962108612
-0.002845893846824765
-0.21292568743228912
-0.15778829157352448
0.1671476662158966
-0.19795943796634674
0.12922954559326172
-0.00027837639208883047
0.00011355848255334422
0.21786390244960785
-0.020081777125597
0.1346757560968399
-0.17881068587303162
-0.04244296997785568
0.06701243668794632
0.07814718037843704
0.0852515771985054
0.15788954496383667
0.15145665407180786
0.19927050173282623
0.03914947062730789
0.009300093166530132
0.12354128062725067
-0.0894089937210083
-0.12453687191009521
-0.10291705280542374
-0.024055253714323044
-0.10921100527048111
0.04673215374350548
0.201980322599411
0.18806515634059906
0.22563190758228302
-0.15538696944713593
0.13526961207389832
0.2223777323961258
-0.0060468753799796104
-0.08683965355157852
0.0027785287238657475
0.2635190188884735
0.017866142094135284
-0.08447186648845673
-0.05189114063978195
-0.06305426359176636
0.07148948311805725
-0.0642002522945404
